<?xml version="1.0" encoding="ISO-8859-1"?>
<!-- This network was created in GeNIe Academic, which can be used for educational and research purposes only -->
<smile version="1.0" id="weather_madrid_LEMD_1997_2015" numsamples="10000" discsamples="10000">
	<nodes>
		<cpt id="Mean_VisibilityKm">
			<state id="s1_below_3" />
			<state id="s2_3_15" />
			<state id="s3_15_23" />
			<state id="s4_23_up" />
			<probabilities>0.002052919708029197 0.3478558394160584 0.3414689781021898 0.3086222627737226</probabilities>
		</cpt>
		<cpt id="MeanDew_PointC">
			<state id="s1_below_n10" />
			<state id="s2_n10_n5" />
			<state id="s3_n5_4" />
			<state id="s4_4_up" />
			<parents>Mean_VisibilityKm</parents>
			<probabilities>0.08333333333333333 0.08333333333333333 0.4166666666666666 0.4166666666666666 0.0006544502617801048 0.003272251308900524 0.3723821989528796 0.6236910994764399 0.0006666666666666666 0.008666666666666666 0.3686666666666666 0.622 0.003687315634218289 0.01548672566371681 0.4432153392330384 0.5376106194690266</probabilities>
		</cpt>
		<cpt id="Mean_Humidity">
			<state id="s1_below_35" />
			<state id="s2_35_49" />
			<state id="s3_49_71" />
			<state id="s4_71_up" />
			<parents>MeanDew_PointC Mean_VisibilityKm</parents>
			<probabilities>0.25 0.25 0.25 0.25 0.25 0.25 0.25 0.25 0.25 0.25 0.25 0.25 0.625 0.125 0.125 0.125 0.25 0.25 0.25 0.25 0.125 0.125 0.625 0.125 0.0625 0.5625 0.3125 0.0625 0.2083333333333333 0.375 0.375 0.04166666666666666 0.125 0.125 0.125 0.625 0.001748251748251748 0.0437062937062937 0.4423076923076923 0.5122377622377622 0.05215827338129497 0.1672661870503597 0.5845323741007195 0.1960431654676259 0.3460264900662252 0.2731788079470199 0.2864238410596027 0.09437086092715231 0.125 0.125 0.125 0.625 0.06799163179916318 0.1223849372384937 0.2102510460251046 0.5993723849372384 0.2061965811965812 0.3643162393162394 0.3301282051282052 0.09935897435897437 0.5368852459016393 0.2363387978142077 0.203551912568306 0.023224043715847</probabilities>
		</cpt>
		<cpt id="Mean_TemperatureC">
			<state id="s1_below_10" />
			<state id="s2_10_14" />
			<state id="s3_14_24" />
			<state id="s4_24_up" />
			<parents>MeanDew_PointC Mean_Humidity</parents>
			<probabilities>0.625 0.125 0.125 0.125 0.25 0.25 0.25 0.25 0.25 0.25 0.25 0.25 0.25 0.25 0.25 0.25 0.625 0.125 0.125 0.125 0.8499999999999999 0.04999999999999999 0.04999999999999999 0.04999999999999999 0.8499999999999999 0.04999999999999999 0.04999999999999999 0.04999999999999999 0.25 0.25 0.25 0.25 0.004166666666666667 0.0375 0.7541666666666667 0.2041666666666667 0.1866197183098592 0.3838028169014084 0.426056338028169 0.00352112676056338 0.8417553191489362 0.1502659574468085 0.006648936170212766 0.001329787234042553 0.9935344827586207 0.002155172413793103 0.002155172413793103 0.002155172413793103 0.001533742331288344 0.001533742331288344 0.3021472392638037 0.6947852760736196 0.001582278481012658 0.007911392405063292 0.8370253164556962 0.1534810126582278 0.007575757575757576 0.2742424242424242 0.7106060606060606 0.007575757575757576 0.3909883720930232 0.4026162790697674 0.2049418604651163 0.001453488372093023</probabilities>
		</cpt>
		<cpt id="Mean_Sea_Level_PressurehPa">
			<state id="s1_below_991" />
			<state id="s2_991_1005" />
			<state id="s3_1005_1025" />
			<state id="s4_1025_up" />
			<parents>Mean_TemperatureC Mean_VisibilityKm</parents>
			<probabilities>0.08333333333333333 0.08333333333333333 0.4166666666666666 0.4166666666666666 0.0119047619047619 0.1124338624338624 0.6203703703703703 0.2552910052910053 0.002155172413793103 0.04525862068965517 0.7176724137931034 0.2349137931034483 0.004166666666666667 0.004166666666666667 0.3541666666666667 0.6375 0.25 0.25 0.25 0.25 0.003125 0.103125 0.8406250000000001 0.05312500000000001 0.00510204081632653 0.1071428571428571 0.8214285714285714 0.06632653061224489 0.005434782608695652 0.005434782608695652 0.7228260869565217 0.266304347826087 0.25 0.25 0.25 0.25 0.002604166666666667 0.01302083333333333 0.9609375 0.0234375 0.001488095238095238 0.00744047619047619 0.9836309523809523 0.00744047619047619 0.001689189189189189 0.001689189189189189 0.9611486486486487 0.03547297297297297 0.25 0.25 0.25 0.25 0.0125 0.0125 0.9625 0.0125 0.005555555555555556 0.005555555555555556 0.9833333333333334 0.005555555555555556 0.002840909090909091 0.002840909090909091 0.9914772727272727 0.002840909090909091</probabilities>
		</cpt>
		<cpt id="Precipitationmm">
			<state id="s1_below_4" />
			<state id="s2_4_17" />
			<state id="s3_17_24" />
			<state id="s4_24_up" />
			<parents>Mean_TemperatureC Mean_Sea_Level_PressurehPa</parents>
			<probabilities>0.08333333333333333 0.75 0.08333333333333333 0.08333333333333333 0.8240740740740741 0.1574074074074074 0.009259259259259259 0.009259259259259259 0.9293721973094172 0.06838565022421526 0.001121076233183857 0.001121076233183857 0.9934782608695653 0.002173913043478261 0.002173913043478261 0.002173913043478261 0.25 0.25 0.25 0.25 0.5892857142857143 0.375 0.01785714285714286 0.01785714285714286 0.9379432624113475 0.05851063829787234 0.001773049645390071 0.001773049645390071 0.9625000000000002 0.0125 0.0125 0.0125 0.25 0.25 0.25 0.25 0.4166666666666666 0.4166666666666666 0.08333333333333333 0.08333333333333333 0.9656250000000001 0.028125 0.003125 0.003125 0.9166666666666666 0.02777777777777778 0.02777777777777778 0.02777777777777778 0.25 0.25 0.25 0.25 0.25 0.25 0.25 0.25 0.9884105960264903 0.008278145695364241 0.001655629139072848 0.001655629139072848 0.25 0.25 0.25 0.25</probabilities>
		</cpt>
		<cpt id="WindDirDegrees">
			<state id="s1_below_104" />
			<state id="s2_104_183" />
			<state id="s3_183_297" />
			<state id="s4_297_up" />
			<parents>Mean_Humidity Mean_Sea_Level_PressurehPa</parents>
			<probabilities>0.25 0.25 0.25 0.25 0.25 0.25 0.25 0.25 0.2173423423423423 0.1587837837837838 0.4831081081081081 0.1407657657657658 0.4166666666666666 0.08333333333333333 0.4166666666666666 0.08333333333333333 0.25 0.25 0.25 0.25 0.125 0.125 0.625 0.125 0.3721719457013575 0.05090497737556562 0.3721719457013575 0.2047511312217195 0.3863636363636364 0.1136363636363636 0.02272727272727273 0.4772727272727273 0.25 0.25 0.25 0.25 0.01666666666666667 0.08333333333333333 0.6833333333333333 0.2166666666666667 0.2196180555555556 0.07378472222222222 0.4418402777777777 0.2647569444444444 0.2227272727272727 0.07727272727272727 0.07727272727272727 0.6227272727272727 0.08333333333333333 0.4166666666666666 0.4166666666666666 0.08333333333333333 0.1203703703703704 0.2314814814814815 0.5648148148148148 0.08333333333333333 0.1426630434782609 0.2133152173913044 0.5122282608695652 0.1317934782608696 0.1480263157894737 0.01644736842105263 0.09539473684210525 0.7401315789473684</probabilities>
		</cpt>
		<cpt id="Mean_Wind_SpeedKm_h">
			<state id="s1_below_12" />
			<state id="s2_12_22" />
			<state id="s3_22_28" />
			<state id="s4_28_up" />
			<parents>Precipitationmm WindDirDegrees</parents>
			<probabilities>0.7562240663900415 0.241701244813278 0.001037344398340249 0.001037344398340249 0.8646788990825687 0.1307339449541284 0.002293577981651376 0.002293577981651376 0.6273474178403756 0.2963615023474179 0.06631455399061033 0.009976525821596244 0.8987226277372264 0.06660583941605841 0.02281021897810219 0.01186131386861314 0.625 0.325 0.025 0.025 0.7115384615384616 0.25 0.01923076923076923 0.01923076923076923 0.2604166666666667 0.6354166666666667 0.09375000000000003 0.01041666666666667 0.5625 0.3125 0.0625 0.0625 0.625 0.125 0.125 0.125 0.25 0.25 0.25 0.25 0.25 0.25 0.25 0.25 0.25 0.25 0.25 0.25 0.25 0.25 0.25 0.25 0.25 0.25 0.25 0.25 0.625 0.125 0.125 0.125 0.25 0.25 0.25 0.25</probabilities>
		</cpt>
		<decision id="Umbrella">
			<state id="No" />
			<state id="Yes" />
		</decision>
		<utility id="Utility">
			<parents>Umbrella Mean_TemperatureC</parents>
			<utilities>0 20 50 100 100 80 50 5</utilities>
		</utility>
	</nodes>
	<extensions>
		<genie version="1.0" app="GeNIe 2.3.3603.0 ACADEMIC" name="weather_madrid_LEMD_1997_2015" faultnameformat="nodestate">
			<node id="Mean_TemperatureC">
				<name>Mean TemperatureC</name>
				<interior color="e5f6f7" />
				<outline color="000080" />
				<font color="000000" name="Arial" size="8" />
				<position>425 31 547 111</position>
				<barchart active="true" width="162" height="117" />
			</node>
			<node id="MeanDew_PointC">
				<name>MeanDew PointC</name>
				<interior color="e5f6f7" />
				<outline color="000080" />
				<font color="000000" name="Arial" size="8" />
				<position>183 39 281 111</position>
				<barchart active="true" width="167" height="123" />
			</node>
			<node id="Mean_Humidity">
				<name>Mean Humidity</name>
				<interior color="e5f6f7" />
				<outline color="000080" />
				<font color="000000" name="Arial" size="8" />
				<position>165 533 294 619</position>
				<barchart active="true" width="168" height="142" />
			</node>
			<node id="Mean_Sea_Level_PressurehPa">
				<name>Mean Sea Level PressurehPa</name>
				<interior color="e5f6f7" />
				<outline color="000080" />
				<font color="000000" name="Arial" size="8" />
				<position>574 201 760 303</position>
				<barchart active="true" width="164" height="118" />
			</node>
			<node id="Mean_VisibilityKm">
				<name>Mean VisibilityKm</name>
				<interior color="e5f6f7" />
				<outline color="000080" />
				<font color="000000" name="Arial" size="8" />
				<position>466 394 604 488</position>
				<barchart active="true" width="184" height="138" />
			</node>
			<node id="Mean_Wind_SpeedKm_h">
				<name>Mean Wind SpeedKm/h</name>
				<interior color="e5f6f7" />
				<outline color="000080" />
				<font color="000000" name="Arial" size="8" />
				<position>935 29 1056 109</position>
				<barchart active="true" width="157" height="119" />
			</node>
			<node id="Precipitationmm">
				<name>Precipitationmm</name>
				<interior color="e5f6f7" />
				<outline color="000080" />
				<font color="000000" name="Arial" size="8" />
				<position>646 29 771 112</position>
				<barchart active="true" width="191" height="124" />
			</node>
			<node id="WindDirDegrees">
				<name>WindDirDegrees</name>
				<interior color="e5f6f7" />
				<outline color="000080" />
				<font color="000000" name="Arial" size="8" />
				<position>946 539 1050 623</position>
				<barchart active="true" width="209" height="116" />
			</node>
			<textbox>
				<caption>Input file: weather_madrid_LEMD_1997_2015.csv\nData rows: 1095\nElapsed time: 0.203s\n\nLearning algorithm: Bayesian Search\nAlgorithm parameters:\nIterations: 20\nMax parent count: 8\nSample size: 50\nLink probability: 0.1\nPrior link probability: 0.001\nSeed: 0\nMax search time: 0\nUse accuracy as score: no\nNo background knowledge\n\nBest score in iteration 9: -7028.78\nEM Log Likelihood: -6495.87</caption>
				<font color="000000" name="Arial" size="8" />
				<position>10 182 105 616</position>
			</textbox>
			<node id="Umbrella">
				<name>Should I take a Jacket ?</name>
				<interior color="e5f6f7" />
				<outline color="000080" />
				<font color="000000" name="Arial" size="8" />
				<position>1219 379 1392 471</position>
				<barchart active="true" width="152" height="101" />
			</node>
			<node id="Utility">
				<name>Utility</name>
				<interior color="e5f6f7" />
				<outline color="000080" />
				<font color="000000" name="Arial" size="8" />
				<position>785 196 971 295</position>
				<barchart active="true" width="167" height="106" />
			</node>
		</genie>
	</extensions>
</smile>
